age_months,L,M,S
0,0.3809,3.2322,0.1417
1,0.1714,4.1873,0.1372
2,0.0962,5.1282,0.13
3,0.0402,5.8458,0.1262
4,-0.005,6.4237,0.124
5,-0.043,6.8985,0.1227
6,-0.0756,7.297,0.122
7,-0.1039,7.6422,0.1218
8,-0.1288,7.9487,0.1218
9,-0.1507,8.2254,0.122
10,-0.17,8.48,0.1222
11,-0.1872,8.7192,0.1225
12,-0.2024,8.9481,0.1227
13,-0.2158,9.1699,0.1228
14,-0.2278,9.387,0.1229
15,-0.2384,9.6008,0.123
16,-0.2478,9.8124,0.123
17,-0.2562,10.0226,0.1231
18,-0.2637,10.2315,0.1231
19,-0.2703,10.4393,0.1232
20,-0.2762,10.6464,0.1232
21,-0.2815,10.8534,0.1234
22,-0.2862,11.0608,0.1235
23,-0.2903,11.2688,0.1237
24,-0.2941,11.4775,0.1239
25,-0.2975,11.6864,0.1241
26,-0.3005,11.8947,0.1244
27,-0.3032,12.1015,0.1247
28,-0.3057,12.3059,0.1251
29,-0.308,12.5073,0.1255
30,-0.3101,12.7055,0.1259
31,-0.312,12.9006,0.1263
32,-0.3138,13.093,0.1268
33,-0.3155,13.2837,0.1274
34,-0.3171,13.4731,0.1279
35,-0.3186,13.6618,0.1286
36,0.5656,14.1998,0.0991
37,0.4441,14.3701,0.1004
38,0.3317,14.5405,0.1017
39,0.2276,14.7108,0.103
40,0.1312,14.8813,0.1042
41,0.0419,15.0518,0.1053
42,-0.0428,15.2236,0.1064
43,-0.1212,15.3956,0.1075
44,-0.1938,15.5676,0.1085
45,-0.2611,15.7399,0.1095
46,-0.3236,15.9123,0.1105
47,-0.3816,16.0848,0.1114
48,-0.4372,16.2585,0.1124
49,-0.4888,16.4324,0.1133
50,-0.5367,16.6064,0.1142
51,-0.5812,16.7806,0.115
52,-0.6227,16.9549,0.1159
53,-0.6613,17.1294,0.1167
54,-0.6987,17.3046,0.1175
55,-0.7335,17.48,0.1183
56,-0.766,17.6555,0.119
57,-0.7962,17.8311,0.1198
58,-0.8245,18.0069,0.1205
59,-0.8509,18.1827,0.1212
60,-0.876,18.3616,0.122
61,-0.8993,18.5405,0.1228
62,-0.921,18.7196,0.1236
63,-0.9412,18.8988,0.1243
64,-0.96,19.078,0.125
65,-0.9776,19.2574,0.1257
66,-0.984,19.4555,0.127
67,-0.9894,19.6537,0.1281
68,-0.9941,19.8519,0.1293
69,-0.9981,20.0502,0.1304
70,-1.0014,20.2485,0.1315
71,-1.0041,20.4468,0.1326
72,-0.9954,20.6619,0.134
73,-0.9868,20.8769,0.1353
74,-0.9784,21.092,0.1367
75,-0.97,21.3071,0.138
76,-0.9618,21.5221,0.1392
77,-0.9537,21.7372,0.1405
78,-0.9411,21.9702,0.1418
79,-0.9288,22.2032,0.1432
80,-0.9169,22.4363,0.1445
81,-0.9054,22.6693,0.1458
82,-0.8942,22.9023,0.1471
83,-0.8833,23.1353,0.1484
84,-0.8685,23.387,0.1497
85,-0.8541,23.6386,0.1511
86,-0.8403,23.8903,0.1524
87,-0.8271,24.1419,0.1536
88,-0.8142,24.3935,0.1549
89,-0.8019,24.6451,0.1561
90,-0.7852,24.9161,0.1574
91,-0.7693,25.1871,0.1586
92,-0.7539,25.4581,0.1598
93,-0.7392,25.7291,0.1609
94,-0.725,26.0001,0.1621
95,-0.7114,26.271,0.1632
96,-0.6971,26.5602,0.1643
97,-0.6834,26.8493,0.1654
98,-0.6702,27.1385,0.1665
99,-0.6574,27.4276,0.1675
100,-0.6451,27.7167,0.1685
101,-0.6333,28.0058,0.1695
102,-0.6214,28.3163,0.1705
103,-0.6098,28.6269,0.1714
104,-0.5987,28.9374,0.1723
105,-0.5879,29.248,0.1732
106,-0.5775,29.5585,0.1741
107,-0.5675,29.869,0.1749
108,-0.5521,30.2033,0.1758
109,-0.5373,30.5375,0.1766
110,-0.5229,30.8718,0.1774
111,-0.509,31.2061,0.1782
112,-0.4956,31.5404,0.179
113,-0.4825,31.8748,0.1798
114,-0.4623,32.2323,0.1806
115,-0.4427,32.59,0.1815
116,-0.4237,32.9478,0.1823
117,-0.4052,33.3056,0.1831
118,-0.3874,33.6636,0.1838
119,-0.37,34.0216,0.1846
120,-0.3496,34.4014,0.1852
121,-0.3297,34.7815,0.1858
122,-0.3103,35.1617,0.1864
123,-0.2914,35.5421,0.1869
124,-0.2729,35.9226,0.1875
125,-0.2548,36.3033,0.188
126,-0.2377,36.7011,0.1882
127,-0.2209,37.0992,0.1883
128,-0.2043,37.4974,0.1884
129,-0.188,37.8958,0.1885
130,-0.1719,38.2944,0.1886
131,-0.156,38.6931,0.1887
132,-0.1419,39.0908,0.1884
133,-0.1278,39.4887,0.1881
134,-0.1138,39.8868,0.1878
135,-0.0998,40.2851,0.1875
136,-0.0859,40.6835,0.1872
137,-0.072,41.0821,0.1869
138,-0.0641,41.4657,0.1862
139,-0.0562,41.8495,0.1855
140,-0.0481,42.2333,0.1848
141,-0.04,42.6173,0.1842
142,-0.0318,43.0013,0.1835
143,-0.0235,43.3855,0.1829
144,-0.0241,43.74,0.1818
145,-0.0246,44.0946,0.1808
146,-0.0251,44.4491,0.1798
147,-0.0255,44.8037,0.1788
148,-0.0258,45.1584,0.1778
149,-0.026,45.513,0.1769
150,-0.0326,45.8261,0.1756
151,-0.0391,46.1391,0.1743
152,-0.0457,46.4522,0.173
153,-0.0523,46.7652,0.1717
154,-0.0589,47.0782,0.1705
155,-0.0655,47.3912,0.1693
156,-0.0745,47.6564,0.1679
157,-0.0837,47.9216,0.1666
158,-0.0929,48.1868,0.1653
159,-0.1021,48.4519,0.164
160,-0.1115,48.7171,0.1627
161,-0.1208,48.9822,0.1614
162,-0.129,49.2069,0.1603
163,-0.1372,49.4315,0.1591
164,-0.1455,49.6562,0.158
165,-0.1538,49.8809,0.1568
166,-0.1621,50.1055,0.1557
167,-0.1705,50.3302,0.1546
168,-0.1734,50.5233,0.1536
169,-0.1763,50.7164,0.1525
170,-0.1791,50.9095,0.1515
171,-0.1819,51.1026,0.1505
172,-0.1846,51.2957,0.1495
173,-0.1873,51.4888,0.1485
174,-0.1869,51.6479,0.1476
175,-0.1865,51.807,0.1467
176,-0.186,51.966,0.1458
177,-0.1854,52.125,0.1449
178,-0.1847,52.284,0.144
179,-0.1839,52.443,0.1431
180,-0.1846,52.5631,0.1424
181,-0.1852,52.6832,0.1417
182,-0.1857,52.8033,0.1409
183,-0.1862,52.9233,0.1402
184,-0.1867,53.0434,0.1395
185,-0.1871,53.1634,0.1388
186,-0.1901,53.2482,0.1382
187,-0.193,53.3331,0.1377
188,-0.196,53.4179,0.1371
189,-0.199,53.5027,0.1366
190,-0.2019,53.5875,0.1361
191,-0.2049,53.6723,0.1355
192,-0.21,53.7253,0.1351
193,-0.2151,53.7783,0.1346
194,-0.2202,53.8313,0.1342
195,-0.2253,53.8843,0.1338
196,-0.2305,53.9373,0.1334
197,-0.2357,53.9903,0.1329
198,-0.2499,54.0055,0.1326
199,-0.2643,54.0208,0.1323
200,-0.2788,54.036,0.1319
201,-0.2934,54.0512,0.1316
202,-0.3081,54.0663,0.1312
203,-0.323,54.0815,0.1309
204,-0.3423,54.0797,0.1306
205,-0.3619,54.0778,0.1303
206,-0.3816,54.0759,0.13
207,-0.4016,54.0739,0.1298
208,-0.4217,54.0719,0.1295
209,-0.4421,54.0698,0.1292
210,-0.4627,54.0634,0.1289
211,-0.4836,54.057,0.1286
212,-0.5046,54.0505,0.1284
213,-0.5259,54.0439,0.1281
214,-0.5474,54.0373,0.1278
215,-0.5691,54.0306,0.1275
216,-0.5908,54.0217,0.1273
217,-0.6128,54.0126,0.127
218,-0.6351,54.0036,0.1267
219,-0.6575,53.9944,0.1264
220,-0.6801,53.9852,0.1261
221,-0.703,53.976,0.1258
222,-0.7262,53.9649,0.1256
223,-0.7497,53.9539,0.1253
224,-0.7734,53.9427,0.125
225,-0.7973,53.9315,0.1247
226,-0.8215,53.9203,0.1244
227,-0.8458,53.909,0.1241
